digraph Tree {
node [shape=box] ;
0 [label="X[3] <= 2.5\ngini = 0.0437\nsamples = 135\nvalue = [132, 2, 1]"] ;
1 [label="gini = 0.0\nsamples = 121\nvalue = [121, 0, 0]"] ;
0 -> 1 [labeldistance=2.5, labelangle=45, headlabel="True"] ;
2 [label="X[3] <= 126.5\ngini = 0.3571\nsamples = 14\nvalue = [11, 2, 1]"] ;
0 -> 2 [labeldistance=2.5, labelangle=-45, headlabel="False"] ;
3 [label="X[1] <= 3.5\ngini = 0.625\nsamples = 4\nvalue = [1, 2, 1]"] ;
2 -> 3 ;
4 [label="gini = 0.5\nsamples = 2\nvalue = [0, 1, 1]"] ;
3 -> 4 ;
5 [label="gini = 0.5\nsamples = 2\nvalue = [1, 1, 0]"] ;
3 -> 5 ;
6 [label="gini = 0.0\nsamples = 10\nvalue = [10, 0, 0]"] ;
2 -> 6 ;
}